digraph Tree {
node [shape=box, style="rounded", color="black", fontname=helvetica] ;
edge [fontname=helvetica] ;
0 [label="carat <= 0.4\nmse = 16136465.6\nsamples = 10285\nvalue = 3971.6"] ;
1 [label="length <= -0.3\nmse = 1258514.9\nsamples = 6665\nvalue = 1645.8"] ;
0 -> 1 [labeldistance=2.5, labelangle=45, headlabel="True"] ;
2 [label="carat <= -0.7\nmse = 238513.4\nsamples = 4590\nvalue = 1026.7"] ;
1 -> 2 ;
3 [label="length <= -1.0\nmse = 51309.9\nsamples = 3273\nvalue = 783.0"] ;
2 -> 3 ;
4 [label="length <= -1.3\nmse = 33988.4\nsamples = 2256\nvalue = 704.9"] ;
3 -> 4 ;
5 [label="mse = 21393.6\nsamples = 637\nvalue = 591.2"] ;
4 -> 5 ;
6 [label="mse = 31963.6\nsamples = 1619\nvalue = 748.5"] ;
4 -> 6 ;
7 [label="clarity_VVS1 <= 0.5\nmse = 45836.0\nsamples = 1017\nvalue = 957.8"] ;
3 -> 7 ;
8 [label="mse = 35965.4\nsamples = 897\nvalue = 927.2"] ;
7 -> 8 ;
9 [label="mse = 60942.0\nsamples = 120\nvalue = 1182.6"] ;
7 -> 9 ;
10 [label="clarity_VVS2 <= 0.5\nmse = 186698.3\nsamples = 1317\nvalue = 1636.3"] ;
2 -> 10 ;
11 [label="clarity_IF <= 0.5\nmse = 162464.7\nsamples = 1167\nvalue = 1575.0"] ;
10 -> 11 ;
12 [label="mse = 132910.3\nsamples = 1138\nvalue = 1550.9"] ;
11 -> 12 ;
13 [label="mse = 419778.8\nsamples = 29\nvalue = 2492.8"] ;
11 -> 13 ;
14 [label="width <= -0.4\nmse = 140130.0\nsamples = 150\nvalue = 2076.7"] ;
10 -> 14 ;
15 [label="mse = 126889.9\nsamples = 93\nvalue = 1972.8"] ;
14 -> 15 ;
16 [label="mse = 104610.8\nsamples = 57\nvalue = 2277.3"] ;
14 -> 16 ;
17 [label="carat <= 0.2\nmse = 841924.6\nsamples = 2075\nvalue = 2985.3"] ;
1 -> 17 ;
18 [label="width <= 0.0\nmse = 409955.4\nsamples = 1560\nvalue = 2635.3"] ;
17 -> 18 ;
19 [label="width <= -0.1\nmse = 323003.1\nsamples = 729\nvalue = 2375.3"] ;
18 -> 19 ;
20 [label="mse = 362519.0\nsamples = 305\nvalue = 2177.7"] ;
19 -> 20 ;
21 [label="mse = 241050.0\nsamples = 424\nvalue = 2525.0"] ;
19 -> 21 ;
22 [label="clarity_SI2 <= 0.5\nmse = 375910.5\nsamples = 831\nvalue = 2860.8"] ;
18 -> 22 ;
23 [label="mse = 381573.6\nsamples = 649\nvalue = 2983.8"] ;
22 -> 23 ;
24 [label="mse = 122537.2\nsamples = 182\nvalue = 2434.9"] ;
22 -> 24 ;
25 [label="clarity_SI2 <= 0.5\nmse = 688241.6\nsamples = 515\nvalue = 4018.2"] ;
17 -> 25 ;
26 [label="color_J <= 0.5\nmse = 737150.1\nsamples = 373\nvalue = 4210.1"] ;
25 -> 26 ;
27 [label="mse = 667945.8\nsamples = 353\nvalue = 4288.6"] ;
26 -> 27 ;
28 [label="mse = 143688.2\nsamples = 20\nvalue = 2939.3"] ;
26 -> 28 ;
29 [label="width <= 0.4\nmse = 223757.7\nsamples = 142\nvalue = 3524.3"] ;
25 -> 29 ;
30 [label="mse = 138959.7\nsamples = 42\nvalue = 3234.2"] ;
29 -> 30 ;
31 [label="mse = 206041.7\nsamples = 100\nvalue = 3658.5"] ;
29 -> 31 ;
32 [label="width <= 1.3\nmse = 15406965.3\nsamples = 3620\nvalue = 8214.9"] ;
0 -> 32 [labeldistance=2.5, labelangle=-45, headlabel="False"] ;
33 [label="clarity_SI2 <= 0.5\nmse = 4551557.2\nsamples = 2483\nvalue = 6233.0"] ;
32 -> 33 ;
34 [label="clarity_SI1 <= 0.5\nmse = 4749387.8\nsamples = 1845\nvalue = 6745.1"] ;
33 -> 34 ;
35 [label="clarity_VVS2 <= 0.5\nmse = 5124920.2\nsamples = 1212\nvalue = 7377.4"] ;
34 -> 35 ;
36 [label="mse = 4658771.7\nsamples = 1048\nvalue = 7067.5"] ;
35 -> 36 ;
37 [label="mse = 3628205.8\nsamples = 164\nvalue = 9335.7"] ;
35 -> 37 ;
38 [label="width <= 1.0\nmse = 1667199.3\nsamples = 633\nvalue = 5498.6"] ;
34 -> 38 ;
39 [label="mse = 601382.7\nsamples = 511\nvalue = 5098.0"] ;
38 -> 39 ;
40 [label="mse = 2605992.4\nsamples = 122\nvalue = 7209.1"] ;
38 -> 40 ;
41 [label="carat <= 0.8\nmse = 1077944.9\nsamples = 638\nvalue = 4765.0"] ;
33 -> 41 ;
42 [label="width <= 0.4\nmse = 368777.6\nsamples = 450\nvalue = 4350.3"] ;
41 -> 42 ;
43 [label="mse = 129876.3\nsamples = 8\nvalue = 2790.3"] ;
42 -> 43 ;
44 [label="mse = 323910.1\nsamples = 442\nvalue = 4381.5"] ;
42 -> 44 ;
45 [label="carat <= 1.2\nmse = 1386334.2\nsamples = 188\nvalue = 5745.6"] ;
41 -> 45 ;
46 [label="mse = 679302.7\nsamples = 155\nvalue = 5447.4"] ;
45 -> 46 ;
47 [label="mse = 2122448.2\nsamples = 33\nvalue = 7363.5"] ;
45 -> 47 ;
48 [label="depth <= 1.8\nmse = 11806228.7\nsamples = 1137\nvalue = 12542.3"] ;
32 -> 48 ;
49 [label="clarity_SI2 <= 0.5\nmse = 8955987.6\nsamples = 683\nvalue = 11068.0"] ;
48 -> 49 ;
50 [label="clarity_I1 <= 0.5\nmse = 8753688.9\nsamples = 549\nvalue = 11646.8"] ;
49 -> 50 ;
51 [label="mse = 7598920.7\nsamples = 527\nvalue = 11887.9"] ;
50 -> 51 ;
52 [label="mse = 1298048.5\nsamples = 22\nvalue = 5819.0"] ;
50 -> 52 ;
53 [label="width <= 1.6\nmse = 2842052.9\nsamples = 134\nvalue = 8707.3"] ;
49 -> 53 ;
54 [label="mse = 2117865.4\nsamples = 98\nvalue = 8155.3"] ;
53 -> 54 ;
55 [label="mse = 2063529.2\nsamples = 36\nvalue = 10047.9"] ;
53 -> 55 ;
56 [label="clarity_I1 <= 0.5\nmse = 7556194.5\nsamples = 454\nvalue = 14846.1"] ;
48 -> 56 ;
57 [label="width <= 2.3\nmse = 5653140.0\nsamples = 432\nvalue = 15155.1"] ;
56 -> 57 ;
58 [label="mse = 5678143.8\nsamples = 359\nvalue = 14864.2"] ;
57 -> 58 ;
59 [label="mse = 3121923.6\nsamples = 73\nvalue = 16568.7"] ;
57 -> 59 ;
60 [label="width <= 2.4\nmse = 6217481.0\nsamples = 22\nvalue = 8775.5"] ;
56 -> 60 ;
61 [label="mse = 1613909.4\nsamples = 13\nvalue = 7028.6"] ;
60 -> 61 ;
62 [label="mse = 2207583.8\nsamples = 9\nvalue = 11270.9"] ;
60 -> 62 ;
}